digraph Tree {
node [shape=box, style="rounded", color="black", fontname="helvetica"] ;
edge [fontname="helvetica"] ;
0 [label="campaignName_enc <= 11.5\nsquared_error = 93.0\nsamples = 377\nvalue = 1.8"] ;
1 [label="targeting_enc <= 32.5\nsquared_error = 30.2\nsamples = 267\nvalue = 0.6"] ;
0 -> 1 [labeldistance=2.5, labelangle=45, headlabel="True"] ;
2 [label="targeting_enc <= 25.0\nsquared_error = 120.2\nsamples = 51\nvalue = 2.5"] ;
1 -> 2 ;
3 [label="squared_error = 0.0\nsamples = 36\nvalue = 0.0"] ;
2 -> 3 ;
4 [label="targeting_enc <= 28.5\nsquared_error = 385.5\nsamples = 15\nvalue = 9.5"] ;
2 -> 4 ;
5 [label="squared_error = 555.6\nsamples = 5\nvalue = 16.7"] ;
4 -> 5 ;
6 [label="adGroupName_enc <= 2.5\nsquared_error = 288.9\nsamples = 10\nvalue = 6.7"] ;
4 -> 6 ;
7 [label="squared_error = 510.2\nsamples = 5\nvalue = 14.3"] ;
6 -> 7 ;
8 [label="squared_error = 0.0\nsamples = 5\nvalue = 0.0"] ;
6 -> 8 ;
9 [label="campaignName_enc <= 1.5\nsquared_error = 8.9\nsamples = 216\nvalue = 0.2"] ;
1 -> 9 ;
10 [label="targeting_enc <= 132.0\nsquared_error = 65.7\nsamples = 22\nvalue = 1.4"] ;
9 -> 10 ;
11 [label="squared_error = 124.7\nsamples = 12\nvalue = 2.6"] ;
10 -> 11 ;
12 [label="squared_error = 0.0\nsamples = 10\nvalue = 0.0"] ;
10 -> 12 ;
13 [label="adGroupName_enc <= 0.5\nsquared_error = 2.0\nsamples = 194\nvalue = 0.1"] ;
9 -> 13 ;
14 [label="Number_of_word <= 2.5\nsquared_error = 13.0\nsamples = 27\nvalue = 0.5"] ;
13 -> 14 ;
15 [label="squared_error = 41.5\nsamples = 7\nvalue = 1.8"] ;
14 -> 15 ;
16 [label="squared_error = 0.0\nsamples = 20\nvalue = 0.0"] ;
14 -> 16 ;
17 [label="squared_error = 0.0\nsamples = 167\nvalue = 0.0"] ;
13 -> 17 ;
18 [label="campaignName_enc <= 12.5\nsquared_error = 247.4\nsamples = 110\nvalue = 4.9"] ;
0 -> 18 [labeldistance=2.5, labelangle=-45, headlabel="False"] ;
19 [label="targeting_enc <= 73.5\nsquared_error = 707.2\nsamples = 24\nvalue = 14.6"] ;
18 -> 19 ;
20 [label="targeting_enc <= 72.5\nsquared_error = 944.0\nsamples = 17\nvalue = 17.3"] ;
19 -> 20 ;
21 [label="squared_error = 826.4\nsamples = 7\nvalue = 9.1"] ;
20 -> 21 ;
22 [label="squared_error = 941.0\nsamples = 10\nvalue = 23.8"] ;
20 -> 22 ;
23 [label="squared_error = 167.3\nsamples = 7\nvalue = 9.0"] ;
19 -> 23 ;
24 [label="adGroupName_enc <= 12.5\nsquared_error = 73.3\nsamples = 86\nvalue = 2.0"] ;
18 -> 24 ;
25 [label="matchType_enc <= 1.5\nsquared_error = 190.6\nsamples = 18\nvalue = 6.2"] ;
24 -> 25 ;
26 [label="squared_error = 0.0\nsamples = 7\nvalue = 0.0"] ;
25 -> 26 ;
27 [label="squared_error = 270.3\nsamples = 11\nvalue = 10.1"] ;
25 -> 27 ;
28 [label="Number_of_word <= 2.5\nsquared_error = 36.1\nsamples = 68\nvalue = 0.9"] ;
24 -> 28 ;
29 [label="targeting_enc <= 55.5\nsquared_error = 109.3\nsamples = 24\nvalue = 2.7"] ;
28 -> 29 ;
30 [label="targeting_enc <= 26.5\nsquared_error = 188.4\nsamples = 15\nvalue = 4.9"] ;
29 -> 30 ;
31 [label="squared_error = 0.0\nsamples = 6\nvalue = 0.0"] ;
30 -> 31 ;
32 [label="squared_error = 270.9\nsamples = 9\nvalue = 7.6"] ;
30 -> 32 ;
33 [label="squared_error = 0.0\nsamples = 9\nvalue = 0.0"] ;
29 -> 33 ;
34 [label="squared_error = 0.0\nsamples = 44\nvalue = 0.0"] ;
28 -> 34 ;
}