digraph Tree {
node [shape=box, style="rounded", color="black", fontname="helvetica"] ;
edge [fontname="helvetica"] ;
0 [label="Number_of_word <= 1.5\nsquared_error = 75.6\nsamples = 703\nvalue = 1.6"] ;
1 [label="targeting_enc <= 142.5\nsquared_error = 714.3\nsamples = 16\nvalue = 16.7"] ;
0 -> 1 [labeldistance=2.5, labelangle=45, headlabel="True"] ;
2 [label="squared_error = 885.4\nsamples = 8\nvalue = 29.2"] ;
1 -> 2 ;
3 [label="squared_error = 0.0\nsamples = 8\nvalue = 0.0"] ;
1 -> 3 ;
4 [label="campaignName_enc <= 11.5\nsquared_error = 58.8\nsamples = 687\nvalue = 1.3"] ;
0 -> 4 [labeldistance=2.5, labelangle=-45, headlabel="False"] ;
5 [label="targeting_enc <= 80.5\nsquared_error = 22.1\nsamples = 482\nvalue = 0.6"] ;
4 -> 5 ;
6 [label="campaignName_enc <= 3.0\nsquared_error = 55.6\nsamples = 121\nvalue = 1.5"] ;
5 -> 6 ;
7 [label="campaignName_enc <= 1.0\nsquared_error = 168.2\nsamples = 22\nvalue = 3.9"] ;
6 -> 7 ;
8 [label="targeting_enc <= 12.5\nsquared_error = 55.1\nsamples = 16\nvalue = 1.4"] ;
7 -> 8 ;
9 [label="squared_error = 0.0\nsamples = 7\nvalue = 0.0"] ;
8 -> 9 ;
10 [label="squared_error = 106.1\nsamples = 9\nvalue = 2.9"] ;
8 -> 10 ;
11 [label="squared_error = 468.8\nsamples = 6\nvalue = 12.5"] ;
7 -> 11 ;
12 [label="targeting_enc <= 77.0\nsquared_error = 28.8\nsamples = 99\nvalue = 0.9"] ;
6 -> 12 ;
13 [label="targeting_enc <= 19.5\nsquared_error = 2.7\nsamples = 76\nvalue = 0.1"] ;
12 -> 13 ;
14 [label="targeting_enc <= 17.5\nsquared_error = 10.7\nsamples = 18\nvalue = 0.6"] ;
13 -> 14 ;
15 [label="squared_error = 0.0\nsamples = 13\nvalue = 0.0"] ;
14 -> 15 ;
16 [label="squared_error = 36.2\nsamples = 5\nvalue = 2.3"] ;
14 -> 16 ;
17 [label="squared_error = 0.0\nsamples = 58\nvalue = 0.0"] ;
13 -> 17 ;
18 [label="matchType_enc <= 0.5\nsquared_error = 104.6\nsamples = 23\nvalue = 3.5"] ;
12 -> 18 ;
19 [label="squared_error = 208.3\nsamples = 5\nvalue = 8.3"] ;
18 -> 19 ;
20 [label="matchType_enc <= 1.5\nsquared_error = 69.1\nsamples = 18\nvalue = 2.2"] ;
18 -> 20 ;
21 [label="squared_error = 0.0\nsamples = 7\nvalue = 0.0"] ;
20 -> 21 ;
22 [label="squared_error = 109.7\nsamples = 11\nvalue = 3.7"] ;
20 -> 22 ;
23 [label="campaignName_enc <= 1.5\nsquared_error = 10.2\nsamples = 361\nvalue = 0.3"] ;
5 -> 23 ;
24 [label="targeting_enc <= 222.0\nsquared_error = 50.2\nsamples = 46\nvalue = 1.4"] ;
23 -> 24 ;
25 [label="squared_error = 0.0\nsamples = 21\nvalue = 0.0"] ;
24 -> 25 ;
26 [label="targeting_enc <= 268.0\nsquared_error = 85.5\nsamples = 25\nvalue = 2.4"] ;
24 -> 26 ;
27 [label="squared_error = 275.0\nsamples = 6\nvalue = 10.0"] ;
26 -> 27 ;
28 [label="squared_error = 0.0\nsamples = 19\nvalue = 0.0"] ;
26 -> 28 ;
29 [label="adGroupName_enc <= 0.5\nsquared_error = 4.2\nsamples = 315\nvalue = 0.2"] ;
23 -> 29 ;
30 [label="targeting_enc <= 219.5\nsquared_error = 12.5\nsamples = 50\nvalue = 0.7"] ;
29 -> 30 ;
31 [label="squared_error = 0.0\nsamples = 38\nvalue = 0.0"] ;
30 -> 31 ;
32 [label="squared_error = 48.0\nsamples = 12\nvalue = 3.2"] ;
30 -> 32 ;
33 [label="Number_of_word <= 4.5\nsquared_error = 2.6\nsamples = 265\nvalue = 0.1"] ;
29 -> 33 ;
34 [label="squared_error = 0.0\nsamples = 230\nvalue = 0.0"] ;
33 -> 34 ;
35 [label="targeting_enc <= 264.0\nsquared_error = 19.5\nsamples = 35\nvalue = 0.6"] ;
33 -> 35 ;
36 [label="squared_error = 0.0\nsamples = 25\nvalue = 0.0"] ;
35 -> 36 ;
37 [label="squared_error = 61.5\nsamples = 10\nvalue = 2.0"] ;
35 -> 37 ;
38 [label="adGroupName_enc <= 8.5\nsquared_error = 142.4\nsamples = 205\nvalue = 3.0"] ;
4 -> 38 ;
39 [label="Number_of_word <= 2.5\nsquared_error = 578.9\nsamples = 25\nvalue = 13.0"] ;
38 -> 39 ;
40 [label="squared_error = 845.8\nsamples = 10\nvalue = 31.4"] ;
39 -> 40 ;
41 [label="targeting_enc <= 139.0\nsquared_error = 86.1\nsamples = 15\nvalue = 1.8"] ;
39 -> 41 ;
42 [label="squared_error = 0.0\nsamples = 7\nvalue = 0.0"] ;
41 -> 42 ;
43 [label="squared_error = 165.8\nsamples = 8\nvalue = 3.6"] ;
41 -> 43 ;
44 [label="adGroupName_enc <= 13.5\nsquared_error = 52.5\nsamples = 180\nvalue = 1.4"] ;
38 -> 44 ;
45 [label="targeting_enc <= 170.5\nsquared_error = 145.1\nsamples = 28\nvalue = 4.0"] ;
44 -> 45 ;
46 [label="matchType_enc <= 1.5\nsquared_error = 201.2\nsamples = 15\nvalue = 6.6"] ;
45 -> 46 ;
47 [label="squared_error = 0.0\nsamples = 6\nvalue = 0.0"] ;
46 -> 47 ;
48 [label="squared_error = 268.7\nsamples = 9\nvalue = 10.0"] ;
46 -> 48 ;
49 [label="matchType_enc <= 0.5\nsquared_error = 86.1\nsamples = 13\nvalue = 1.8"] ;
45 -> 49 ;
50 [label="squared_error = 206.6\nsamples = 5\nvalue = 4.5"] ;
49 -> 50 ;
51 [label="squared_error = 0.0\nsamples = 8\nvalue = 0.0"] ;
49 -> 51 ;
52 [label="targeting_enc <= 97.5\nsquared_error = 29.1\nsamples = 152\nvalue = 0.8"] ;
44 -> 52 ;
53 [label="targeting_enc <= 48.5\nsquared_error = 2.0\nsamples = 69\nvalue = 0.1"] ;
52 -> 53 ;
54 [label="squared_error = 0.0\nsamples = 51\nvalue = 0.0"] ;
53 -> 54 ;
55 [label="matchType_enc <= 1.5\nsquared_error = 7.5\nsamples = 18\nvalue = 0.5"] ;
53 -> 55 ;
56 [label="squared_error = 0.0\nsamples = 11\nvalue = 0.0"] ;
55 -> 56 ;
57 [label="squared_error = 16.9\nsamples = 7\nvalue = 1.3"] ;
55 -> 57 ;
58 [label="targeting_enc <= 107.5\nsquared_error = 50.7\nsamples = 83\nvalue = 1.3"] ;
52 -> 58 ;
59 [label="squared_error = 302.0\nsamples = 5\nvalue = 9.2"] ;
58 -> 59 ;
60 [label="adGroupName_enc <= 19.5\nsquared_error = 31.6\nsamples = 78\nvalue = 0.9"] ;
58 -> 60 ;
61 [label="targeting_enc <= 128.0\nsquared_error = 24.5\nsamples = 66\nvalue = 0.5"] ;
60 -> 61 ;
62 [label="targeting_enc <= 125.5\nsquared_error = 65.7\nsamples = 24\nvalue = 1.4"] ;
61 -> 62 ;
63 [label="squared_error = 0.0\nsamples = 14\nvalue = 0.0"] ;
62 -> 63 ;
64 [label="squared_error = 165.8\nsamples = 10\nvalue = 3.6"] ;
62 -> 64 ;
65 [label="squared_error = 0.0\nsamples = 42\nvalue = 0.0"] ;
61 -> 65 ;
66 [label="targeting_enc <= 170.5\nsquared_error = 72.2\nsamples = 12\nvalue = 3.3"] ;
60 -> 66 ;
67 [label="squared_error = 127.6\nsamples = 6\nvalue = 7.1"] ;
66 -> 67 ;
68 [label="squared_error = 0.0\nsamples = 6\nvalue = 0.0"] ;
66 -> 68 ;
}