digraph Tree {
node [shape=box, style="rounded", color="black", fontname="helvetica"] ;
edge [fontname="helvetica"] ;
0 [label="Number_of_word <= 1.5\nsquared_error = 49.1\nsamples = 4234\nvalue = 1.0"] ;
1 [label="campaignName_enc <= 10.0\nsquared_error = 523.3\nsamples = 62\nvalue = 8.2"] ;
0 -> 1 [labeldistance=2.5, labelangle=45, headlabel="True"] ;
2 [label="adGroupName_enc <= 19.5\nsquared_error = 553.1\nsamples = 38\nvalue = 4.7"] ;
1 -> 2 ;
3 [label="squared_error = 0.0\nsamples = 18\nvalue = 0.0"] ;
2 -> 3 ;
4 [label="matchType_enc <= 1.0\nsquared_error = 1034.7\nsamples = 20\nvalue = 9.1"] ;
2 -> 4 ;
5 [label="targeting_enc <= 197.0\nsquared_error = 1402.7\nsamples = 14\nvalue = 12.7"] ;
4 -> 5 ;
6 [label="squared_error = 2879.7\nsamples = 7\nvalue = 17.0"] ;
5 -> 6 ;
7 [label="squared_error = 216.3\nsamples = 7\nvalue = 9.3"] ;
5 -> 7 ;
8 [label="squared_error = 0.0\nsamples = 6\nvalue = 0.0"] ;
4 -> 8 ;
9 [label="matchType_enc <= 1.5\nsquared_error = 409.7\nsamples = 24\nvalue = 14.5"] ;
1 -> 9 ;
10 [label="squared_error = 663.3\nsamples = 8\nvalue = 23.8"] ;
9 -> 10 ;
11 [label="campaignName_enc <= 15.5\nsquared_error = 192.1\nsamples = 16\nvalue = 9.3"] ;
9 -> 11 ;
12 [label="squared_error = 246.9\nsamples = 6\nvalue = 5.6"] ;
11 -> 12 ;
13 [label="squared_error = 149.0\nsamples = 10\nvalue = 11.4"] ;
11 -> 13 ;
14 [label="campaignName_enc <= 9.5\nsquared_error = 40.6\nsamples = 4172\nvalue = 0.9"] ;
0 -> 14 [labeldistance=2.5, labelangle=-45, headlabel="False"] ;
15 [label="campaignName_enc <= 1.5\nsquared_error = 19.8\nsamples = 2259\nvalue = 0.3"] ;
14 -> 15 ;
16 [label="targeting_enc <= 19.0\nsquared_error = 63.6\nsamples = 232\nvalue = 1.7"] ;
15 -> 16 ;
17 [label="squared_error = 301.0\nsamples = 10\nvalue = 11.5"] ;
16 -> 17 ;
18 [label="targeting_enc <= 408.5\nsquared_error = 51.6\nsamples = 222\nvalue = 1.4"] ;
16 -> 18 ;
19 [label="squared_error = 0.0\nsamples = 90\nvalue = 0.0"] ;
18 -> 19 ;
20 [label="targeting_enc <= 409.5\nsquared_error = 83.9\nsamples = 132\nvalue = 2.3"] ;
18 -> 20 ;
21 [label="squared_error = 130.5\nsamples = 12\nvalue = 8.0"] ;
20 -> 21 ;
22 [label="targeting_enc <= 554.0\nsquared_error = 76.3\nsamples = 120\nvalue = 1.7"] ;
20 -> 22 ;
23 [label="Number_of_word <= 2.5\nsquared_error = 134.4\nsamples = 60\nvalue = 3.0"] ;
22 -> 23 ;
24 [label="squared_error = 358.3\nsamples = 8\nvalue = 10.7"] ;
23 -> 24 ;
25 [label="targeting_enc <= 420.0\nsquared_error = 88.1\nsamples = 52\nvalue = 1.8"] ;
23 -> 25 ;
26 [label="Number_of_word <= 3.5\nsquared_error = 160.5\nsamples = 18\nvalue = 3.4"] ;
25 -> 26 ;
27 [label="squared_error = 273.4\nsamples = 8\nvalue = 6.2"] ;
26 -> 27 ;
28 [label="squared_error = 0.0\nsamples = 10\nvalue = 0.0"] ;
26 -> 28 ;
29 [label="targeting_enc <= 497.0\nsquared_error = 46.3\nsamples = 34\nvalue = 0.9"] ;
25 -> 29 ;
30 [label="targeting_enc <= 467.5\nsquared_error = 69.4\nsamples = 21\nvalue = 1.4"] ;
29 -> 30 ;
31 [label="squared_error = 0.0\nsamples = 11\nvalue = 0.0"] ;
30 -> 31 ;
32 [label="squared_error = 131.2\nsamples = 10\nvalue = 2.8"] ;
30 -> 32 ;
33 [label="squared_error = 0.0\nsamples = 13\nvalue = 0.0"] ;
29 -> 33 ;
34 [label="Number_of_word <= 2.5\nsquared_error = 12.1\nsamples = 60\nvalue = 0.4"] ;
22 -> 34 ;
35 [label="targeting_enc <= 585.0\nsquared_error = 32.6\nsamples = 21\nvalue = 1.0"] ;
34 -> 35 ;
36 [label="squared_error = 0.0\nsamples = 12\nvalue = 0.0"] ;
35 -> 36 ;
37 [label="squared_error = 78.9\nsamples = 9\nvalue = 2.6"] ;
35 -> 37 ;
38 [label="squared_error = 0.0\nsamples = 39\nvalue = 0.0"] ;
34 -> 38 ;
39 [label="targeting_enc <= 101.5\nsquared_error = 14.7\nsamples = 2027\nvalue = 0.1"] ;
15 -> 39 ;
40 [label="adGroupName_enc <= 19.5\nsquared_error = 57.0\nsamples = 515\nvalue = 0.5"] ;
39 -> 40 ;
41 [label="targeting_enc <= 100.5\nsquared_error = 6.2\nsamples = 501\nvalue = 0.1"] ;
40 -> 41 ;
42 [label="squared_error = 0.0\nsamples = 495\nvalue = 0.0"] ;
41 -> 42 ;
43 [label="squared_error = 400.0\nsamples = 6\nvalue = 10.0"] ;
41 -> 43 ;
44 [label="squared_error = 1807.4\nsamples = 14\nvalue = 13.8"] ;
40 -> 44 ;
45 [label="squared_error = 0.0\nsamples = 1512\nvalue = 0.0"] ;
39 -> 45 ;
46 [label="Number_of_word <= 2.5\nsquared_error = 63.5\nsamples = 1913\nvalue = 1.5"] ;
14 -> 46 ;
47 [label="adGroupName_enc <= 21.5\nsquared_error = 84.2\nsamples = 502\nvalue = 2.8"] ;
46 -> 47 ;
48 [label="targeting_enc <= 133.0\nsquared_error = 104.5\nsamples = 382\nvalue = 3.6"] ;
47 -> 48 ;
49 [label="campaignName_enc <= 14.0\nsquared_error = 69.7\nsamples = 160\nvalue = 1.7"] ;
48 -> 49 ;
50 [label="targeting_enc <= 52.5\nsquared_error = 113.8\nsamples = 67\nvalue = 2.4"] ;
49 -> 50 ;
51 [label="squared_error = 0.0\nsamples = 13\nvalue = 0.0"] ;
50 -> 51 ;
52 [label="targeting_enc <= 60.5\nsquared_error = 141.7\nsamples = 54\nvalue = 3.0"] ;
50 -> 52 ;
53 [label="targeting_enc <= 56.5\nsquared_error = 371.7\nsamples = 19\nvalue = 5.6"] ;
52 -> 53 ;
54 [label="squared_error = 45.0\nsamples = 12\nvalue = 3.2"] ;
53 -> 54 ;
55 [label="squared_error = 826.4\nsamples = 7\nvalue = 9.1"] ;
53 -> 55 ;
56 [label="targeting_enc <= 71.5\nsquared_error = 35.5\nsamples = 35\nvalue = 1.8"] ;
52 -> 56 ;
57 [label="squared_error = -0.0\nsamples = 18\nvalue = 0.0"] ;
56 -> 57 ;
58 [label="matchType_enc <= 1.0\nsquared_error = 61.9\nsamples = 17\nvalue = 3.5"] ;
56 -> 58 ;
59 [label="squared_error = 79.7\nsamples = 11\nvalue = 4.3"] ;
58 -> 59 ;
60 [label="squared_error = 37.0\nsamples = 6\nvalue = 2.5"] ;
58 -> 60 ;
61 [label="targeting_enc <= 17.0\nsquared_error = 31.3\nsamples = 93\nvalue = 1.0"] ;
49 -> 61 ;
62 [label="targeting_enc <= 13.0\nsquared_error = 97.4\nsamples = 28\nvalue = 3.0"] ;
61 -> 62 ;
63 [label="targeting_enc <= 4.0\nsquared_error = 3.5\nsamples = 20\nvalue = 0.4"] ;
62 -> 63 ;
64 [label="squared_error = 8.2\nsamples = 8\nvalue = 1.0"] ;
63 -> 64 ;
65 [label="squared_error = 0.0\nsamples = 12\nvalue = 0.0"] ;
63 -> 65 ;
66 [label="squared_error = 258.3\nsamples = 8\nvalue = 9.1"] ;
62 -> 66 ;
67 [label="targeting_enc <= 28.0\nsquared_error = 3.9\nsamples = 65\nvalue = 0.3"] ;
61 -> 67 ;
68 [label="targeting_enc <= 21.5\nsquared_error = 10.7\nsamples = 20\nvalue = 0.7"] ;
67 -> 68 ;
69 [label="squared_error = 0.0\nsamples = 10\nvalue = 0.0"] ;
68 -> 69 ;
70 [label="squared_error = 19.7\nsamples = 10\nvalue = 1.3"] ;
68 -> 70 ;
71 [label="matchType_enc <= 1.5\nsquared_error = 1.3\nsamples = 45\nvalue = 0.1"] ;
67 -> 71 ;
72 [label="squared_error = 0.0\nsamples = 38\nvalue = 0.0"] ;
71 -> 72 ;
73 [label="squared_error = 7.7\nsamples = 7\nvalue = 0.9"] ;
71 -> 73 ;
74 [label="targeting_enc <= 251.0\nsquared_error = 124.8\nsamples = 222\nvalue = 4.9"] ;
48 -> 74 ;
75 [label="targeting_enc <= 166.5\nsquared_error = 158.1\nsamples = 96\nvalue = 7.6"] ;
74 -> 75 ;
76 [label="matchType_enc <= 1.5\nsquared_error = 78.9\nsamples = 41\nvalue = 4.8"] ;
75 -> 76 ;
77 [label="adGroupName_enc <= 20.5\nsquared_error = 6.0\nsamples = 21\nvalue = 0.6"] ;
76 -> 77 ;
78 [label="targeting_enc <= 139.5\nsquared_error = 1.6\nsamples = 14\nvalue = 0.3"] ;
77 -> 78 ;
79 [label="squared_error = 2.6\nsamples = 9\nvalue = 0.5"] ;
78 -> 79 ;
80 [label="squared_error = 0.0\nsamples = 5\nvalue = 0.0"] ;
78 -> 80 ;
81 [label="squared_error = 14.1\nsamples = 7\nvalue = 1.2"] ;
77 -> 81 ;
82 [label="campaignName_enc <= 14.0\nsquared_error = 112.6\nsamples = 20\nvalue = 8.3"] ;
76 -> 82 ;
83 [label="squared_error = 133.5\nsamples = 7\nvalue = 9.9"] ;
82 -> 83 ;
84 [label="squared_error = 98.7\nsamples = 13\nvalue = 7.5"] ;
82 -> 84 ;
85 [label="campaignName_enc <= 12.0\nsquared_error = 208.7\nsamples = 55\nvalue = 9.8"] ;
75 -> 85 ;
86 [label="targeting_enc <= 223.5\nsquared_error = 141.2\nsamples = 30\nvalue = 6.4"] ;
85 -> 86 ;
87 [label="targeting_enc <= 207.0\nsquared_error = 186.6\nsamples = 18\nvalue = 9.9"] ;
86 -> 87 ;
88 [label="squared_error = 282.7\nsamples = 10\nvalue = 9.0"] ;
87 -> 88 ;
89 [label="squared_error = 88.9\nsamples = 8\nvalue = 10.8"] ;
87 -> 89 ;
90 [label="matchType_enc <= 0.5\nsquared_error = 32.8\nsamples = 12\nvalue = 1.4"] ;
86 -> 90 ;
91 [label="squared_error = 61.7\nsamples = 5\nvalue = 2.8"] ;
90 -> 91 ;
92 [label="squared_error = 0.0\nsamples = 7\nvalue = 0.0"] ;
90 -> 92 ;
93 [label="targeting_enc <= 230.5\nsquared_error = 255.4\nsamples = 25\nvalue = 13.5"] ;
85 -> 93 ;
94 [label="squared_error = 377.6\nsamples = 14\nvalue = 10.3"] ;
93 -> 94 ;
95 [label="squared_error = 166.3\nsamples = 11\nvalue = 15.5"] ;
93 -> 95 ;
96 [label="adGroupName_enc <= 2.5\nsquared_error = 87.2\nsamples = 126\nvalue = 2.8"] ;
74 -> 96 ;
97 [label="targeting_enc <= 350.5\nsquared_error = 143.9\nsamples = 45\nvalue = 5.4"] ;
96 -> 97 ;
98 [label="targeting_enc <= 300.5\nsquared_error = 6.6\nsamples = 21\nvalue = 0.7"] ;
97 -> 98 ;
99 [label="squared_error = 0.0\nsamples = 7\nvalue = 0.0"] ;
98 -> 99 ;
100 [label="targeting_enc <= 318.5\nsquared_error = 10.4\nsamples = 14\nvalue = 1.2"] ;
98 -> 100 ;
101 [label="squared_error = 18.8\nsamples = 6\nvalue = 2.5"] ;
100 -> 101 ;
102 [label="squared_error = 0.0\nsamples = 8\nvalue = 0.0"] ;
100 -> 102 ;
103 [label="targeting_enc <= 484.0\nsquared_error = 230.0\nsamples = 24\nvalue = 9.7"] ;
97 -> 103 ;
104 [label="targeting_enc <= 420.5\nsquared_error = 276.9\nsamples = 16\nvalue = 15.0"] ;
103 -> 104 ;
105 [label="squared_error = 177.9\nsamples = 8\nvalue = 13.4"] ;
104 -> 105 ;
106 [label="squared_error = 354.4\nsamples = 8\nvalue = 16.2"] ;
104 -> 106 ;
107 [label="squared_error = 0.0\nsamples = 8\nvalue = 0.0"] ;
103 -> 107 ;
108 [label="targeting_enc <= 316.0\nsquared_error = 56.0\nsamples = 81\nvalue = 1.5"] ;
96 -> 108 ;
109 [label="targeting_enc <= 289.5\nsquared_error = 232.1\nsamples = 17\nvalue = 5.8"] ;
108 -> 109 ;
110 [label="campaignName_enc <= 15.0\nsquared_error = 73.7\nsamples = 11\nvalue = 2.4"] ;
109 -> 110 ;
111 [label="squared_error = 0.0\nsamples = 5\nvalue = 0.0"] ;
110 -> 111 ;
112 [label="squared_error = 136.1\nsamples = 6\nvalue = 4.8"] ;
110 -> 112 ;
113 [label="squared_error = 432.1\nsamples = 6\nvalue = 11.1"] ;
109 -> 113 ;
114 [label="targeting_enc <= 362.5\nsquared_error = 12.2\nsamples = 64\nvalue = 0.6"] ;
108 -> 114 ;
115 [label="squared_error = 0.0\nsamples = 28\nvalue = 0.0"] ;
114 -> 115 ;
116 [label="targeting_enc <= 399.0\nsquared_error = 21.3\nsamples = 36\nvalue = 1.1"] ;
114 -> 116 ;
117 [label="matchType_enc <= 1.0\nsquared_error = 47.7\nsamples = 16\nvalue = 2.6"] ;
116 -> 117 ;
118 [label="squared_error = 73.7\nsamples = 9\nvalue = 4.4"] ;
117 -> 118 ;
119 [label="squared_error = 0.0\nsamples = 7\nvalue = 0.0"] ;
117 -> 119 ;
120 [label="squared_error = 0.0\nsamples = 20\nvalue = 0.0"] ;
116 -> 120 ;
121 [label="matchType_enc <= 0.5\nsquared_error = 16.8\nsamples = 120\nvalue = 0.5"] ;
47 -> 121 ;
122 [label="targeting_enc <= 341.0\nsquared_error = 55.4\nsamples = 34\nvalue = 1.8"] ;
121 -> 122 ;
123 [label="squared_error = 208.3\nsamples = 9\nvalue = 8.3"] ;
122 -> 123 ;
124 [label="squared_error = 0.0\nsamples = 25\nvalue = 0.0"] ;
122 -> 124 ;
125 [label="squared_error = 0.0\nsamples = 86\nvalue = 0.0"] ;
121 -> 125 ;
126 [label="targeting_enc <= 311.5\nsquared_error = 55.9\nsamples = 1411\nvalue = 1.1"] ;
46 -> 126 ;
127 [label="adGroupName_enc <= 2.5\nsquared_error = 19.1\nsamples = 870\nvalue = 0.5"] ;
126 -> 127 ;
128 [label="squared_error = 0.0\nsamples = 214\nvalue = 0.0"] ;
127 -> 128 ;
129 [label="targeting_enc <= 80.5\nsquared_error = 25.4\nsamples = 656\nvalue = 0.6"] ;
127 -> 129 ;
130 [label="squared_error = 0.0\nsamples = 109\nvalue = 0.0"] ;
129 -> 130 ;
131 [label="targeting_enc <= 81.5\nsquared_error = 30.8\nsamples = 547\nvalue = 0.8"] ;
129 -> 131 ;
132 [label="matchType_enc <= 1.0\nsquared_error = 124.9\nsamples = 20\nvalue = 3.7"] ;
131 -> 132 ;
133 [label="squared_error = 256.0\nsamples = 8\nvalue = 7.9"] ;
132 -> 133 ;
134 [label="squared_error = 9.3\nsamples = 12\nvalue = 0.7"] ;
132 -> 134 ;
135 [label="adGroupName_enc <= 20.5\nsquared_error = 26.5\nsamples = 527\nvalue = 0.7"] ;
131 -> 135 ;
136 [label="targeting_enc <= 231.0\nsquared_error = 42.9\nsamples = 242\nvalue = 1.0"] ;
135 -> 136 ;
137 [label="campaignName_enc <= 11.5\nsquared_error = 10.1\nsamples = 133\nvalue = 0.5"] ;
136 -> 137 ;
138 [label="targeting_enc <= 113.5\nsquared_error = 30.7\nsamples = 38\nvalue = 1.5"] ;
137 -> 138 ;
139 [label="squared_error = 60.9\nsamples = 7\nvalue = 3.8"] ;
138 -> 139 ;
140 [label="targeting_enc <= 170.0\nsquared_error = 19.7\nsamples = 31\nvalue = 0.9"] ;
138 -> 140 ;
141 [label="targeting_enc <= 148.5\nsquared_error = 31.8\nsamples = 18\nvalue = 1.5"] ;
140 -> 141 ;
142 [label="squared_error = -0.0\nsamples = 11\nvalue = 0.0"] ;
141 -> 142 ;
143 [label="squared_error = 66.4\nsamples = 7\nvalue = 3.3"] ;
141 -> 143 ;
144 [label="squared_error = 0.0\nsamples = 13\nvalue = 0.0"] ;
140 -> 144 ;
145 [label="squared_error = 0.0\nsamples = 95\nvalue = 0.0"] ;
137 -> 145 ;
146 [label="targeting_enc <= 269.5\nsquared_error = 83.7\nsamples = 109\nvalue = 1.7"] ;
136 -> 146 ;
147 [label="campaignName_enc <= 16.5\nsquared_error = 168.0\nsamples = 41\nvalue = 3.6"] ;
146 -> 147 ;
148 [label="targeting_enc <= 233.5\nsquared_error = 71.4\nsamples = 20\nvalue = 1.5"] ;
147 -> 148 ;
149 [label="squared_error = 165.8\nsamples = 8\nvalue = 3.6"] ;
148 -> 149 ;
150 [label="squared_error = 0.0\nsamples = 12\nvalue = 0.0"] ;
148 -> 150 ;
151 [label="Number_of_word <= 3.5\nsquared_error = 253.1\nsamples = 21\nvalue = 5.7"] ;
147 -> 151 ;
152 [label="squared_error = 420.9\nsamples = 10\nvalue = 10.7"] ;
151 -> 152 ;
153 [label="squared_error = 113.4\nsamples = 11\nvalue = 2.4"] ;
151 -> 153 ;
154 [label="adGroupName_enc <= 19.5\nsquared_error = 23.8\nsamples = 68\nvalue = 0.5"] ;
146 -> 154 ;
155 [label="squared_error = 0.0\nsamples = 47\nvalue = 0.0"] ;
154 -> 155 ;
156 [label="targeting_enc <= 296.5\nsquared_error = 73.5\nsamples = 21\nvalue = 1.5"] ;
154 -> 156 ;
157 [label="squared_error = 155.6\nsamples = 10\nvalue = 3.3"] ;
156 -> 157 ;
158 [label="squared_error = 0.0\nsamples = 11\nvalue = 0.0"] ;
156 -> 158 ;
159 [label="matchType_enc <= 1.5\nsquared_error = 12.6\nsamples = 285\nvalue = 0.4"] ;
135 -> 159 ;
160 [label="squared_error = 0.0\nsamples = 104\nvalue = 0.0"] ;
159 -> 160 ;
161 [label="targeting_enc <= 285.0\nsquared_error = 19.3\nsamples = 181\nvalue = 0.5"] ;
159 -> 161 ;
162 [label="targeting_enc <= 283.0\nsquared_error = 24.9\nsamples = 143\nvalue = 0.7"] ;
161 -> 162 ;
163 [label="targeting_enc <= 169.0\nsquared_error = 16.8\nsamples = 136\nvalue = 0.5"] ;
162 -> 163 ;
164 [label="targeting_enc <= 167.5\nsquared_error = 28.5\nsamples = 79\nvalue = 0.8"] ;
163 -> 164 ;
165 [label="adGroupName_enc <= 22.0\nsquared_error = 10.1\nsamples = 74\nvalue = 0.4"] ;
164 -> 165 ;
166 [label="targeting_enc <= 135.0\nsquared_error = 36.6\nsamples = 18\nvalue = 1.6"] ;
165 -> 166 ;
167 [label="squared_error = 68.4\nsamples = 9\nvalue = 3.1"] ;
166 -> 167 ;
168 [label="squared_error = 0.0\nsamples = 9\nvalue = 0.0"] ;
166 -> 168 ;
169 [label="squared_error = 0.0\nsamples = 56\nvalue = 0.0"] ;
165 -> 169 ;
170 [label="squared_error = 306.1\nsamples = 5\nvalue = 7.1"] ;
164 -> 170 ;
171 [label="squared_error = 0.0\nsamples = 57\nvalue = 0.0"] ;
163 -> 171 ;
172 [label="squared_error = 128.4\nsamples = 7\nvalue = 4.4"] ;
162 -> 172 ;
173 [label="squared_error = 0.0\nsamples = 38\nvalue = 0.0"] ;
161 -> 173 ;
174 [label="targeting_enc <= 323.5\nsquared_error = 116.7\nsamples = 541\nvalue = 2.1"] ;
126 -> 174 ;
175 [label="Number_of_word <= 3.5\nsquared_error = 449.7\nsamples = 41\nvalue = 10.4"] ;
174 -> 175 ;
176 [label="matchType_enc <= 0.5\nsquared_error = 582.2\nsamples = 24\nvalue = 14.3"] ;
175 -> 176 ;
177 [label="campaignName_enc <= 12.5\nsquared_error = 511.1\nsamples = 15\nvalue = 16.7"] ;
176 -> 177 ;
178 [label="squared_error = 532.5\nsamples = 7\nvalue = 15.4"] ;
177 -> 178 ;
179 [label="squared_error = 484.2\nsamples = 8\nvalue = 18.1"] ;
177 -> 179 ;
180 [label="squared_error = 654.7\nsamples = 9\nvalue = 11.2"] ;
176 -> 180 ;
181 [label="targeting_enc <= 315.0\nsquared_error = 120.4\nsamples = 17\nvalue = 3.1"] ;
175 -> 181 ;
182 [label="squared_error = 221.4\nsamples = 10\nvalue = 6.2"] ;
181 -> 182 ;
183 [label="squared_error = 0.0\nsamples = 7\nvalue = 0.0"] ;
181 -> 183 ;
184 [label="Number_of_word <= 4.5\nsquared_error = 81.1\nsamples = 500\nvalue = 1.4"] ;
174 -> 184 ;
185 [label="targeting_enc <= 363.0\nsquared_error = 66.3\nsamples = 428\nvalue = 1.0"] ;
184 -> 185 ;
186 [label="targeting_enc <= 348.0\nsquared_error = 188.2\nsamples = 116\nvalue = 2.7"] ;
185 -> 186 ;
187 [label="targeting_enc <= 344.5\nsquared_error = 17.4\nsamples = 68\nvalue = 0.6"] ;
186 -> 187 ;
188 [label="squared_error = 0.0\nsamples = 49\nvalue = 0.0"] ;
187 -> 188 ;
189 [label="campaignName_enc <= 16.5\nsquared_error = 59.9\nsamples = 19\nvalue = 2.4"] ;
187 -> 189 ;
190 [label="matchType_enc <= 1.5\nsquared_error = 98.8\nsamples = 13\nvalue = 4.2"] ;
189 -> 190 ;
191 [label="squared_error = 0.0\nsamples = 6\nvalue = 0.0"] ;
190 -> 191 ;
192 [label="squared_error = 134.9\nsamples = 7\nvalue = 6.3"] ;
190 -> 192 ;
193 [label="squared_error = 0.0\nsamples = 6\nvalue = 0.0"] ;
189 -> 193 ;
194 [label="targeting_enc <= 350.5\nsquared_error = 436.4\nsamples = 48\nvalue = 5.9"] ;
186 -> 194 ;
195 [label="squared_error = 933.3\nsamples = 6\nvalue = 20.0"] ;
194 -> 195 ;
196 [label="adGroupName_enc <= 22.5\nsquared_error = 326.6\nsamples = 42\nvalue = 3.8"] ;
194 -> 196 ;
197 [label="targeting_enc <= 359.5\nsquared_error = 219.8\nsamples = 35\nvalue = 2.7"] ;
196 -> 197 ;
198 [label="squared_error = 0.0\nsamples = 21\nvalue = 0.0"] ;
197 -> 198 ;
199 [label="squared_error = 447.5\nsamples = 14\nvalue = 5.8"] ;
197 -> 199 ;
200 [label="squared_error = 826.4\nsamples = 7\nvalue = 9.1"] ;
196 -> 200 ;
201 [label="matchType_enc <= 0.5\nsquared_error = 15.5\nsamples = 312\nvalue = 0.3"] ;
185 -> 201 ;
202 [label="targeting_enc <= 448.5\nsquared_error = 30.7\nsamples = 154\nvalue = 0.6"] ;
201 -> 202 ;
203 [label="targeting_enc <= 443.5\nsquared_error = 53.9\nsamples = 89\nvalue = 1.1"] ;
202 -> 203 ;
204 [label="targeting_enc <= 396.0\nsquared_error = 39.1\nsamples = 84\nvalue = 0.8"] ;
203 -> 204 ;
205 [label="squared_error = 0.0\nsamples = 40\nvalue = 0.0"] ;
204 -> 205 ;
206 [label="targeting_enc <= 402.5\nsquared_error = 71.4\nsamples = 44\nvalue = 1.5"] ;
204 -> 206 ;
207 [label="squared_error = 371.9\nsamples = 7\nvalue = 9.1"] ;
206 -> 207 ;
208 [label="squared_error = 0.0\nsamples = 37\nvalue = 0.0"] ;
206 -> 208 ;
209 [label="squared_error = 225.0\nsamples = 5\nvalue = 5.0"] ;
203 -> 209 ;
210 [label="squared_error = 0.0\nsamples = 65\nvalue = 0.0"] ;
202 -> 210 ;
211 [label="squared_error = 0.0\nsamples = 158\nvalue = 0.0"] ;
201 -> 211 ;
212 [label="targeting_enc <= 511.0\nsquared_error = 163.1\nsamples = 72\nvalue = 3.5"] ;
184 -> 212 ;
213 [label="targeting_enc <= 453.5\nsquared_error = 113.4\nsamples = 66\nvalue = 2.4"] ;
212 -> 213 ;
214 [label="targeting_enc <= 340.5\nsquared_error = 39.1\nsamples = 43\nvalue = 0.8"] ;
213 -> 214 ;
215 [label="squared_error = 206.6\nsamples = 6\nvalue = 4.5"] ;
214 -> 215 ;
216 [label="squared_error = 0.0\nsamples = 37\nvalue = 0.0"] ;
214 -> 216 ;
217 [label="adGroupName_enc <= 19.5\nsquared_error = 215.4\nsamples = 23\nvalue = 4.8"] ;
213 -> 217 ;
218 [label="squared_error = 371.9\nsamples = 12\nvalue = 9.1"] ;
217 -> 218 ;
219 [label="squared_error = 0.0\nsamples = 11\nvalue = 0.0"] ;
217 -> 219 ;
220 [label="squared_error = 555.6\nsamples = 6\nvalue = 16.7"] ;
212 -> 220 ;
}