digraph Tree {
node [shape=box, style="rounded", color="black", fontname="helvetica"] ;
edge [fontname="helvetica"] ;
0 [label="campaignName_enc <= 11.5\nsquared_error = 62.6\nsamples = 695\nvalue = 1.3"] ;
1 [label="campaignName_enc <= 2.5\nsquared_error = 16.7\nsamples = 491\nvalue = 0.4"] ;
0 -> 1 [labeldistance=2.5, labelangle=45, headlabel="True"] ;
2 [label="targeting_enc <= 268.5\nsquared_error = 46.2\nsamples = 109\nvalue = 1.2"] ;
1 -> 2 ;
3 [label="targeting_enc <= 246.5\nsquared_error = 72.7\nsamples = 74\nvalue = 1.9"] ;
2 -> 3 ;
4 [label="targeting_enc <= 222.0\nsquared_error = 53.2\nsamples = 67\nvalue = 1.1"] ;
3 -> 4 ;
5 [label="campaignName_enc <= 1.5\nsquared_error = 32.0\nsamples = 54\nvalue = 0.6"] ;
4 -> 5 ;
6 [label="squared_error = 0.0\nsamples = 40\nvalue = 0.0"] ;
5 -> 6 ;
7 [label="targeting_enc <= 121.5\nsquared_error = 131.2\nsamples = 14\nvalue = 2.8"] ;
5 -> 7 ;
8 [label="squared_error = 273.4\nsamples = 7\nvalue = 6.2"] ;
7 -> 8 ;
9 [label="squared_error = 0.0\nsamples = 7\nvalue = 0.0"] ;
7 -> 9 ;
10 [label="targeting_enc <= 241.5\nsquared_error = 155.6\nsamples = 13\nvalue = 3.3"] ;
4 -> 10 ;
11 [label="squared_error = 306.1\nsamples = 6\nvalue = 7.1"] ;
10 -> 11 ;
12 [label="squared_error = 0.0\nsamples = 7\nvalue = 0.0"] ;
10 -> 12 ;
13 [label="squared_error = 189.4\nsamples = 7\nvalue = 8.3"] ;
3 -> 13 ;
14 [label="squared_error = 0.0\nsamples = 35\nvalue = 0.0"] ;
2 -> 14 ;
15 [label="adGroupName_enc <= 3.5\nsquared_error = 8.9\nsamples = 382\nvalue = 0.3"] ;
1 -> 15 ;
16 [label="Number_of_word <= 2.5\nsquared_error = 18.8\nsamples = 178\nvalue = 0.5"] ;
15 -> 16 ;
17 [label="targeting_enc <= 199.5\nsquared_error = 33.7\nsamples = 95\nvalue = 1.0"] ;
16 -> 17 ;
18 [label="targeting_enc <= 40.0\nsquared_error = 27.0\nsamples = 74\nvalue = 0.6"] ;
17 -> 18 ;
19 [label="squared_error = 0.0\nsamples = 28\nvalue = 0.0"] ;
18 -> 19 ;
20 [label="targeting_enc <= 64.5\nsquared_error = 42.5\nsamples = 46\nvalue = 1.0"] ;
18 -> 20 ;
21 [label="squared_error = 165.8\nsamples = 8\nvalue = 3.6"] ;
20 -> 21 ;
22 [label="matchType_enc <= 1.5\nsquared_error = 15.9\nsamples = 38\nvalue = 0.5"] ;
20 -> 22 ;
23 [label="squared_error = 0.0\nsamples = 22\nvalue = 0.0"] ;
22 -> 23 ;
24 [label="adGroupName_enc <= 2.0\nsquared_error = 37.0\nsamples = 16\nvalue = 1.1"] ;
22 -> 24 ;
25 [label="squared_error = 0.0\nsamples = 6\nvalue = 0.0"] ;
24 -> 25 ;
26 [label="squared_error = 61.5\nsamples = 10\nvalue = 2.0"] ;
24 -> 26 ;
27 [label="targeting_enc <= 240.0\nsquared_error = 58.9\nsamples = 21\nvalue = 2.4"] ;
17 -> 27 ;
28 [label="squared_error = 166.9\nsamples = 7\nvalue = 9.6"] ;
27 -> 28 ;
29 [label="squared_error = 0.0\nsamples = 14\nvalue = 0.0"] ;
27 -> 29 ;
30 [label="squared_error = 0.0\nsamples = 83\nvalue = 0.0"] ;
16 -> 30 ;
31 [label="squared_error = 0.0\nsamples = 204\nvalue = 0.0"] ;
15 -> 31 ;
32 [label="campaignName_enc <= 12.5\nsquared_error = 175.7\nsamples = 204\nvalue = 3.4"] ;
0 -> 32 [labeldistance=2.5, labelangle=-45, headlabel="False"] ;
33 [label="Number_of_word <= 2.5\nsquared_error = 830.0\nsamples = 28\nvalue = 16.3"] ;
32 -> 33 ;
34 [label="squared_error = 1080.2\nsamples = 11\nvalue = 27.8"] ;
33 -> 34 ;
35 [label="targeting_enc <= 139.0\nsquared_error = 486.0\nsamples = 17\nvalue = 8.0"] ;
33 -> 35 ;
36 [label="squared_error = 1093.8\nsamples = 7\nvalue = 12.5"] ;
35 -> 36 ;
37 [label="squared_error = 186.0\nsamples = 10\nvalue = 5.9"] ;
35 -> 37 ;
38 [label="adGroupName_enc <= 12.5\nsquared_error = 38.1\nsamples = 176\nvalue = 1.3"] ;
32 -> 38 ;
39 [label="matchType_enc <= 1.5\nsquared_error = 181.6\nsamples = 19\nvalue = 7.2"] ;
38 -> 39 ;
40 [label="squared_error = 0.0\nsamples = 7\nvalue = 0.0"] ;
39 -> 40 ;
41 [label="squared_error = 222.1\nsamples = 12\nvalue = 9.8"] ;
39 -> 41 ;
42 [label="adGroupName_enc <= 17.5\nsquared_error = 14.7\nsamples = 157\nvalue = 0.5"] ;
38 -> 42 ;
43 [label="targeting_enc <= 128.0\nsquared_error = 31.4\nsamples = 69\nvalue = 1.1"] ;
42 -> 43 ;
44 [label="targeting_enc <= 98.5\nsquared_error = 51.3\nsamples = 39\nvalue = 1.8"] ;
43 -> 44 ;
45 [label="squared_error = 0.0\nsamples = 20\nvalue = 0.0"] ;
44 -> 45 ;
46 [label="targeting_enc <= 107.5\nsquared_error = 97.8\nsamples = 19\nvalue = 3.6"] ;
44 -> 46 ;
47 [label="squared_error = 49.0\nsamples = 6\nvalue = 5.7"] ;
46 -> 47 ;
48 [label="squared_error = 118.8\nsamples = 13\nvalue = 2.5"] ;
46 -> 48 ;
49 [label="squared_error = 0.0\nsamples = 30\nvalue = 0.0"] ;
43 -> 49 ;
50 [label="campaignName_enc <= 14.0\nsquared_error = 1.5\nsamples = 88\nvalue = 0.1"] ;
42 -> 50 ;
51 [label="Number_of_word <= 2.5\nsquared_error = 4.6\nsamples = 31\nvalue = 0.3"] ;
50 -> 51 ;
52 [label="squared_error = 16.9\nsamples = 9\nvalue = 1.3"] ;
51 -> 52 ;
53 [label="squared_error = 0.0\nsamples = 22\nvalue = 0.0"] ;
51 -> 53 ;
54 [label="squared_error = 0.0\nsamples = 57\nvalue = 0.0"] ;
50 -> 54 ;
}